svm_type c_svc
kernel_type linear
nr_class 2
total_sv 8
rho 0.063141480088233948
label 1 -1
nr_sv 4 4
SV
1 1:0.481 2:0.149 
1 1:0.437 2:0.211 
1 1:0.774 2:0.376 
1 1:0.556 2:0.215 
-1 1:0.719 2:0.103 
-1 1:0.639 2:0.161 
-1 1:0.666 2:0.091 
-1 1:0.243 2:0.267 
